//Numpy array shape [3, 6, 6]
//Min -1.994190573692
//Max 0.944504320621
//Number of zeros 0

#ifndef W6_H_
#define W6_H_

#ifndef __SYNTHESIS__
conv1d_1_weight_t w6[108];
#else
conv1d_1_weight_t w6[108] = {0.1384176612, 0.0749917701, -0.5023367405, 0.4969683290, 0.9445043206, -0.0188695192, -0.9550165534, 0.0218941681, -1.4835425615, 0.0266228057, 0.0984338075, 0.0114809433, -0.0599572882, -0.0433772430, 0.1772260070, -1.0893665552, -0.7189344168, -0.0009683350, -0.0279923938, 0.1324660033, -0.4130149484, -0.4695952535, -0.4066056609, 0.0025790303, 0.0366700850, 0.3068493605, -0.9528585076, -0.3043357134, -0.6716988087, -0.2291570157, 0.0527651049, 0.1687459499, 0.0483870804, -0.0493494570, 0.0260871761, 0.2175979167, 0.2861541808, 0.4035596550, -0.2687242329, 0.0389334857, 0.1250571460, -0.1518560350, 0.0034049572, 0.0018279832, 0.0453749113, -0.0042499122, 0.0060716281, -1.9941905737, -0.9775739312, -0.5966378450, 0.0886909366, -0.0295996983, -0.0773395523, 0.0884864256, -0.2776441276, -1.2256665230, -0.0381796882, -0.1254899800, 0.0579828843, -0.3400854766, -0.3732356131, -0.2221284956, -1.1826187372, 0.0131553235, -0.0836090595, -0.5138785243, -0.1158359498, 0.2896192968, 0.1667647362, 0.4407292306, 0.3750824332, 0.1618409306, 0.0216573738, 0.0065556187, 0.4212669432, 0.0053768721, 0.0127758384, -0.0162313543, -0.0021873685, 0.0001941613, -0.0409311950, -0.0012387427, -0.0067430018, -0.0112110954, -0.0160270017, -0.0194344297, -0.1977717727, -0.0044207359, -0.0069548828, -0.0498284101, -0.3337607086, 0.0325388312, 0.0539626367, -0.0799034536, -0.0141894380, 0.0595372021, 0.1340635568, -0.0575822853, 0.3018200099, 0.0196959879, 0.0234244410, -0.6194204688, 0.4361062646, 0.1424049288, 0.1134908050, 0.0135392994, -0.1462254822, 0.0770522729};
#endif

#endif
