//Numpy array shape [3, 6, 3]
//Min -1.579656481743
//Max 2.039970159531
//Number of zeros 0

#ifndef W9_H_
#define W9_H_

#ifndef __SYNTHESIS__
conv1d_2_weight_t w9[54];
#else
conv1d_2_weight_t w9[54] = {1.0449469090, -1.1214944124, 0.2920535207, 0.2523997426, 0.0646695420, 0.2060554028, -0.7889207602, 0.6991584897, 0.9020428658, -0.4408279955, -0.2926509678, -0.2623045146, 0.8346455097, 0.0952074975, -0.0426026657, -0.5818608403, 0.1216733605, -0.1164674163, 0.1325071156, -0.7650185227, 0.3963571787, 2.0399701595, -1.5796564817, 1.4052618742, 1.4129292965, -0.0527464598, -0.2942727506, 0.2460414767, 0.9242536426, -1.1875789165, -1.4693113565, 0.4724507928, 0.9532113671, -0.0020183525, 0.4851755202, -0.6699776649, -0.1312213093, -0.1878823787, 0.0183843169, 0.4477667212, -0.3735360205, 0.1578563005, -0.6759460568, -0.0573466681, 0.4681203663, 0.3773393631, -0.3437635601, -0.2375401556, -1.1182153225, 0.4289271832, 0.0373068824, -0.1381871551, -0.1120646968, -0.4119496644};
#endif

#endif
